<?xml version="1.0"?>
<opencv_storage>
<cascade>
  <stageType>BOOST</stageType>
  <featureType>HAAR</featureType>
  <height>24</height>
  <width>43</width>
  <stageParams>
    <boostType>GAB</boostType>
    <minHitRate>9.9500000476837158e-01</minHitRate>
    <maxFalseAlarm>5.0000000000000000e-01</maxFalseAlarm>
    <weightTrimRate>9.4999999999999996e-01</weightTrimRate>
    <maxDepth>1</maxDepth>
    <maxWeakCount>100</maxWeakCount></stageParams>
  <featureParams>
    <maxCatCount>0</maxCatCount>
    <featSize>1</featSize>
    <mode>BASIC</mode></featureParams>
  <stageNum>6</stageNum>
  <stages>
    <!-- stage 0 -->
    <_>
      <maxWeakCount>2</maxWeakCount>
      <stageThreshold>1.4925377443432808e-02</stageThreshold>
      <weakClassifiers>
        <_>
          <internalNodes>
            0 -1 0 -6.2865160405635834e-02</internalNodes>
          <leafValues>
            1. -9.8484849929809570e-01</leafValues></_>
        <_>
          <internalNodes>
            0 -1 7 2.6026368141174316e-02</internalNodes>
          <leafValues>
            -9.8507463932037354e-01 1.</leafValues></_></weakClassifiers></_>
    <!-- stage 1 -->
    <_>
      <maxWeakCount>2</maxWeakCount>
      <stageThreshold>1.5151515603065491e-02</stageThreshold>
      <weakClassifiers>
        <_>
          <internalNodes>
            0 -1 12 -3.9260048419237137e-02</internalNodes>
          <leafValues>
            1. -9.8484849929809570e-01</leafValues></_>
        <_>
          <internalNodes>
            0 -1 8 -4.5355491340160370e-02</internalNodes>
          <leafValues>
            1. -9.7037035226821899e-01</leafValues></_></weakClassifiers></_>
    <!-- stage 2 -->
    <_>
      <maxWeakCount>2</maxWeakCount>
      <stageThreshold>-1.9341906905174255e-01</stageThreshold>
      <weakClassifiers>
        <_>
          <internalNodes>
            0 -1 1 -1.8934626132249832e-02</internalNodes>
          <leafValues>
            1. -9.6992480754852295e-01</leafValues></_>
        <_>
          <internalNodes>
            0 -1 4 9.3498909845948219e-03</internalNodes>
          <leafValues>
            -9.6918004751205444e-01 7.7650576829910278e-01</leafValues></_></weakClassifiers></_>
    <!-- stage 3 -->
    <_>
      <maxWeakCount>3</maxWeakCount>
      <stageThreshold>-1.0499109029769897e+00</stageThreshold>
      <weakClassifiers>
        <_>
          <internalNodes>
            0 -1 11 1.3635519891977310e-02</internalNodes>
          <leafValues>
            -9.6992480754852295e-01 1.</leafValues></_>
        <_>
          <internalNodes>
            0 -1 6 1.3218787498772144e-02</internalNodes>
          <leafValues>
            -8.8504040241241455e-01 9.6051651239395142e-01</leafValues></_>
        <_>
          <internalNodes>
            0 -1 10 -6.1820717528462410e-03</internalNodes>
          <leafValues>
            8.0505430698394775e-01 -1.</leafValues></_></weakClassifiers></_>
    <!-- stage 4 -->
    <_>
      <maxWeakCount>3</maxWeakCount>
      <stageThreshold>-9.5156347751617432e-01</stageThreshold>
      <weakClassifiers>
        <_>
          <internalNodes>
            0 -1 13 2.8368933126330376e-02</internalNodes>
          <leafValues>
            -9.6992480754852295e-01 1.</leafValues></_>
        <_>
          <internalNodes>
            0 -1 5 -1.0157078504562378e-02</internalNodes>
          <leafValues>
            1. -8.7278699874877930e-01</leafValues></_>
        <_>
          <internalNodes>
            0 -1 2 -4.6990521252155304e-02</internalNodes>
          <leafValues>
            8.9114832878112793e-01 -8.9500701427459717e-01</leafValues></_></weakClassifiers></_>
    <!-- stage 5 -->
    <_>
      <maxWeakCount>2</maxWeakCount>
      <stageThreshold>-1.3330391049385071e-01</stageThreshold>
      <weakClassifiers>
        <_>
          <internalNodes>
            0 -1 9 4.4137462973594666e-03</internalNodes>
          <leafValues>
            -9.5522385835647583e-01 1.</leafValues></_>
        <_>
          <internalNodes>
            0 -1 3 -2.5524584576487541e-02</internalNodes>
          <leafValues>
            8.2191997766494751e-01 -9.8481678962707520e-01</leafValues></_></weakClassifiers></_></stages>
  <features>
    <_>
      <rects>
        <_>
          0 7 16 9 -1.</_>
        <_>
          0 10 16 3 3.</_></rects>
      <tilted>0</tilted></_>
    <_>
      <rects>
        <_>
          1 11 13 3 -1.</_>
        <_>
          1 12 13 1 3.</_></rects>
      <tilted>0</tilted></_>
    <_>
      <rects>
        <_>
          7 0 10 22 -1.</_>
        <_>
          12 0 5 22 2.</_></rects>
      <tilted>0</tilted></_>
    <_>
      <rects>
        <_>
          9 2 20 10 -1.</_>
        <_>
          9 2 10 5 2.</_>
        <_>
          19 7 10 5 2.</_></rects>
      <tilted>0</tilted></_>
    <_>
      <rects>
        <_>
          10 12 10 1 -1.</_>
        <_>
          15 12 5 1 2.</_></rects>
      <tilted>0</tilted></_>
    <_>
      <rects>
        <_>
          13 2 6 4 -1.</_>
        <_>
          13 2 3 2 2.</_>
        <_>
          16 4 3 2 2.</_></rects>
      <tilted>0</tilted></_>
    <_>
      <rects>
        <_>
          14 17 8 4 -1.</_>
        <_>
          14 17 4 2 2.</_>
        <_>
          18 19 4 2 2.</_></rects>
      <tilted>0</tilted></_>
    <_>
      <rects>
        <_>
          16 14 10 6 -1.</_>
        <_>
          16 14 5 3 2.</_>
        <_>
          21 17 5 3 2.</_></rects>
      <tilted>0</tilted></_>
    <_>
      <rects>
        <_>
          17 6 20 8 -1.</_>
        <_>
          17 6 10 4 2.</_>
        <_>
          27 10 10 4 2.</_></rects>
      <tilted>0</tilted></_>
    <_>
      <rects>
        <_>
          17 18 4 2 -1.</_>
        <_>
          17 18 2 1 2.</_>
        <_>
          19 19 2 1 2.</_></rects>
      <tilted>0</tilted></_>
    <_>
      <rects>
        <_>
          19 9 1 15 -1.</_>
        <_>
          19 14 1 5 3.</_></rects>
      <tilted>0</tilted></_>
    <_>
      <rects>
        <_>
          19 12 20 2 -1.</_>
        <_>
          19 12 10 1 2.</_>
        <_>
          29 13 10 1 2.</_></rects>
      <tilted>0</tilted></_>
    <_>
      <rects>
        <_>
          23 9 15 6 -1.</_>
        <_>
          23 11 15 2 3.</_></rects>
      <tilted>0</tilted></_>
    <_>
      <rects>
        <_>
          25 12 8 6 -1.</_>
        <_>
          25 15 8 3 2.</_></rects>
      <tilted>0</tilted></_></features></cascade>
</opencv_storage>
