<?xml version="1.0"?>
<opencv_storage>
<cascade>
  <stageType>BOOST</stageType>
  <featureType>HAAR</featureType>
  <height>24</height>
  <width>43</width>
  <stageParams>
    <boostType>GAB</boostType>
    <minHitRate>9.9500000476837158e-01</minHitRate>
    <maxFalseAlarm>5.0000000000000000e-01</maxFalseAlarm>
    <weightTrimRate>9.4999999999999996e-01</weightTrimRate>
    <maxDepth>1</maxDepth>
    <maxWeakCount>100</maxWeakCount></stageParams>
  <featureParams>
    <maxCatCount>0</maxCatCount>
    <featSize>1</featSize>
    <mode>BASIC</mode></featureParams>
  <stageNum>13</stageNum>
  <stages>
    <!-- stage 0 -->
    <_>
      <maxWeakCount>2</maxWeakCount>
      <stageThreshold>-3.0333486199378967e-01</stageThreshold>
      <weakClassifiers>
        <_>
          <internalNodes>
            0 -1 20 -6.3213557004928589e-03</internalNodes>
          <leafValues>
            8.0645161867141724e-01 -9.4475138187408447e-01</leafValues></_>
        <_>
          <internalNodes>
            0 -1 33 7.0113083347678185e-03</internalNodes>
          <leafValues>
            -9.8727148771286011e-01 6.4141649007797241e-01</leafValues></_></weakClassifiers></_>
    <!-- stage 1 -->
    <_>
      <maxWeakCount>2</maxWeakCount>
      <stageThreshold>-2.0785237848758698e-01</stageThreshold>
      <weakClassifiers>
        <_>
          <internalNodes>
            0 -1 0 3.7602428346872330e-03</internalNodes>
          <leafValues>
            -9.7740113735198975e-01 7.7142858505249023e-01</leafValues></_>
        <_>
          <internalNodes>
            0 -1 17 1.1906757717952132e-03</internalNodes>
          <leafValues>
            -9.3798577785491943e-01 7.6954877376556396e-01</leafValues></_></weakClassifiers></_>
    <!-- stage 2 -->
    <_>
      <maxWeakCount>3</maxWeakCount>
      <stageThreshold>-8.4024196863174438e-01</stageThreshold>
      <weakClassifiers>
        <_>
          <internalNodes>
            0 -1 25 -2.3873932659626007e-02</internalNodes>
          <leafValues>
            8.5714286565780640e-01 -9.2391306161880493e-01</leafValues></_>
        <_>
          <internalNodes>
            0 -1 7 3.3101163804531097e-02</internalNodes>
          <leafValues>
            -7.5968480110168457e-01 9.1785895824432373e-01</leafValues></_>
        <_>
          <internalNodes>
            0 -1 22 2.2459797561168671e-02</internalNodes>
          <leafValues>
            -7.5634312629699707e-01 8.4335589408874512e-01</leafValues></_></weakClassifiers></_>
    <!-- stage 3 -->
    <_>
      <maxWeakCount>3</maxWeakCount>
      <stageThreshold>-1.1406974792480469e+00</stageThreshold>
      <weakClassifiers>
        <_>
          <internalNodes>
            0 -1 35 4.7591654583811760e-03</internalNodes>
          <leafValues>
            -9.0322577953338623e-01 8.4615385532379150e-01</leafValues></_>
        <_>
          <internalNodes>
            0 -1 23 3.7254692870192230e-05</internalNodes>
          <leafValues>
            -8.8518077135086060e-01 5.7248163223266602e-01</leafValues></_>
        <_>
          <internalNodes>
            0 -1 14 -9.1424798592925072e-03</internalNodes>
          <leafValues>
            8.1596767902374268e-01 -8.0995327234268188e-01</leafValues></_></weakClassifiers></_>
    <!-- stage 4 -->
    <_>
      <maxWeakCount>2</maxWeakCount>
      <stageThreshold>-4.1044721007347107e-01</stageThreshold>
      <weakClassifiers>
        <_>
          <internalNodes>
            0 -1 32 -2.9086841270327568e-02</internalNodes>
          <leafValues>
            7.1428573131561279e-01 -9.6610170602798462e-01</leafValues></_>
        <_>
          <internalNodes>
            0 -1 16 2.3239377886056900e-02</internalNodes>
          <leafValues>
            -8.9559251070022583e-01 5.5565446615219116e-01</leafValues></_></weakClassifiers></_>
    <!-- stage 5 -->
    <_>
      <maxWeakCount>3</maxWeakCount>
      <stageThreshold>-8.9700853824615479e-01</stageThreshold>
      <weakClassifiers>
        <_>
          <internalNodes>
            0 -1 34 -1.9424434751272202e-02</internalNodes>
          <leafValues>
            1. -8.9417988061904907e-01</leafValues></_>
        <_>
          <internalNodes>
            0 -1 12 5.1945067942142487e-02</internalNodes>
          <leafValues>
            -7.3719578981399536e-01 7.1773177385330200e-01</leafValues></_>
        <_>
          <internalNodes>
            0 -1 28 7.0392880588769913e-03</internalNodes>
          <leafValues>
            -7.2056043148040771e-01 8.4212136268615723e-01</leafValues></_></weakClassifiers></_>
    <!-- stage 6 -->
    <_>
      <maxWeakCount>3</maxWeakCount>
      <stageThreshold>-1.4249148368835449e+00</stageThreshold>
      <weakClassifiers>
        <_>
          <internalNodes>
            0 -1 6 1.1118154972791672e-02</internalNodes>
          <leafValues>
            -8.9417988061904907e-01 1.</leafValues></_>
        <_>
          <internalNodes>
            0 -1 10 4.2391940951347351e-02</internalNodes>
          <leafValues>
            -8.4769695997238159e-01 4.9243056774139404e-01</leafValues></_>
        <_>
          <internalNodes>
            0 -1 5 -2.3589893244206905e-03</internalNodes>
          <leafValues>
            -1. 3.1696200370788574e-01</leafValues></_></weakClassifiers></_>
    <!-- stage 7 -->
    <_>
      <maxWeakCount>3</maxWeakCount>
      <stageThreshold>-1.0849688053131104e+00</stageThreshold>
      <weakClassifiers>
        <_>
          <internalNodes>
            0 -1 15 3.2521046698093414e-02</internalNodes>
          <leafValues>
            -8.8421052694320679e-01 1.</leafValues></_>
        <_>
          <internalNodes>
            0 -1 31 -1.6320294141769409e-01</internalNodes>
          <leafValues>
            5.2467155456542969e-01 -8.4159356355667114e-01</leafValues></_>
        <_>
          <internalNodes>
            0 -1 30 -7.7106831595301628e-03</internalNodes>
          <leafValues>
            7.6363444328308105e-01 -7.2542989253997803e-01</leafValues></_></weakClassifiers></_>
    <!-- stage 8 -->
    <_>
      <maxWeakCount>3</maxWeakCount>
      <stageThreshold>-1.3195607662200928e+00</stageThreshold>
      <weakClassifiers>
        <_>
          <internalNodes>
            0 -1 2 -2.1766200661659241e-02</internalNodes>
          <leafValues>
            1. -8.6458331346511841e-01</leafValues></_>
        <_>
          <internalNodes>
            0 -1 8 1.0798484086990356e-01</internalNodes>
          <leafValues>
            -8.4028065204620361e-01 4.5650056004524231e-01</leafValues></_>
        <_>
          <internalNodes>
            0 -1 3 6.7045452306047082e-04</internalNodes>
          <leafValues>
            3.8530316948890686e-01 -1.</leafValues></_></weakClassifiers></_>
    <!-- stage 9 -->
    <_>
      <maxWeakCount>3</maxWeakCount>
      <stageThreshold>-1.0842446088790894e+00</stageThreshold>
      <weakClassifiers>
        <_>
          <internalNodes>
            0 -1 1 3.0241539701819420e-02</internalNodes>
          <leafValues>
            -9.0270268917083740e-01 7.7777779102325439e-01</leafValues></_>
        <_>
          <internalNodes>
            0 -1 27 1.2724285013973713e-02</internalNodes>
          <leafValues>
            -7.4862343072891235e-01 6.9584846496582031e-01</leafValues></_>
        <_>
          <internalNodes>
            0 -1 18 -3.4938841126859188e-03</internalNodes>
          <leafValues>
            5.6708151102066040e-01 -8.1196862459182739e-01</leafValues></_></weakClassifiers></_>
    <!-- stage 10 -->
    <_>
      <maxWeakCount>3</maxWeakCount>
      <stageThreshold>-1.1839717626571655e+00</stageThreshold>
      <weakClassifiers>
        <_>
          <internalNodes>
            0 -1 13 2.8410904109477997e-02</internalNodes>
          <leafValues>
            -8.6458331346511841e-01 1.</leafValues></_>
        <_>
          <internalNodes>
            0 -1 9 7.3338732123374939e-02</internalNodes>
          <leafValues>
            -8.6359554529190063e-01 5.2135956287384033e-01</leafValues></_>
        <_>
          <internalNodes>
            0 -1 4 -9.0097431093454361e-03</internalNodes>
          <leafValues>
            -8.4074801206588745e-01 5.7797825336456299e-01</leafValues></_></weakClassifiers></_>
    <!-- stage 11 -->
    <_>
      <maxWeakCount>3</maxWeakCount>
      <stageThreshold>-1.1496368646621704e+00</stageThreshold>
      <weakClassifiers>
        <_>
          <internalNodes>
            0 -1 26 -2.1069291979074478e-02</internalNodes>
          <leafValues>
            1. -8.6458331346511841e-01</leafValues></_>
        <_>
          <internalNodes>
            0 -1 21 6.3560612499713898e-02</internalNodes>
          <leafValues>
            -7.4704802036285400e-01 5.4396790266036987e-01</leafValues></_>
        <_>
          <internalNodes>
            0 -1 19 8.6648622527718544e-05</internalNodes>
          <leafValues>
            4.6199440956115723e-01 -1.</leafValues></_></weakClassifiers></_>
    <!-- stage 12 -->
    <_>
      <maxWeakCount>3</maxWeakCount>
      <stageThreshold>-9.8364627361297607e-01</stageThreshold>
      <weakClassifiers>
        <_>
          <internalNodes>
            0 -1 24 -2.8028730303049088e-02</internalNodes>
          <leafValues>
            1. -8.7434554100036621e-01</leafValues></_>
        <_>
          <internalNodes>
            0 -1 11 2.3332729935646057e-02</internalNodes>
          <leafValues>
            -6.5017271041870117e-01 8.5290384292602539e-01</leafValues></_>
        <_>
          <internalNodes>
            0 -1 29 2.8999224305152893e-03</internalNodes>
          <leafValues>
            -8.3982533216476440e-01 5.4087197780609131e-01</leafValues></_></weakClassifiers></_></stages>
  <features>
    <_>
      <rects>
        <_>
          0 11 26 1 -1.</_>
        <_>
          13 11 13 1 2.</_></rects>
      <tilted>0</tilted></_>
    <_>
      <rects>
        <_>
          1 3 4 15 -1.</_>
        <_>
          1 8 4 5 3.</_></rects>
      <tilted>0</tilted></_>
    <_>
      <rects>
        <_>
          1 14 15 3 -1.</_>
        <_>
          1 15 15 1 3.</_></rects>
      <tilted>0</tilted></_>
    <_>
      <rects>
        <_>
          2 0 27 2 -1.</_>
        <_>
          11 0 9 2 3.</_></rects>
      <tilted>0</tilted></_>
    <_>
      <rects>
        <_>
          2 0 27 3 -1.</_>
        <_>
          11 0 9 3 3.</_></rects>
      <tilted>0</tilted></_>
    <_>
      <rects>
        <_>
          2 1 40 10 -1.</_>
        <_>
          22 1 20 10 2.</_></rects>
      <tilted>0</tilted></_>
    <_>
      <rects>
        <_>
          2 5 3 6 -1.</_>
        <_>
          2 8 3 3 2.</_></rects>
      <tilted>0</tilted></_>
    <_>
      <rects>
        <_>
          2 7 9 12 -1.</_>
        <_>
          5 7 3 12 3.</_></rects>
      <tilted>0</tilted></_>
    <_>
      <rects>
        <_>
          3 6 30 14 -1.</_>
        <_>
          13 6 10 14 3.</_></rects>
      <tilted>0</tilted></_>
    <_>
      <rects>
        <_>
          3 7 30 11 -1.</_>
        <_>
          13 7 10 11 3.</_></rects>
      <tilted>0</tilted></_>
    <_>
      <rects>
        <_>
          3 8 18 10 -1.</_>
        <_>
          12 8 9 10 2.</_></rects>
      <tilted>0</tilted></_>
    <_>
      <rects>
        <_>
          5 8 9 6 -1.</_>
        <_>
          8 8 3 6 3.</_></rects>
      <tilted>0</tilted></_>
    <_>
      <rects>
        <_>
          5 15 16 9 -1.</_>
        <_>
          5 18 16 3 3.</_></rects>
      <tilted>0</tilted></_>
    <_>
      <rects>
        <_>
          6 8 6 6 -1.</_>
        <_>
          8 8 2 6 3.</_></rects>
      <tilted>0</tilted></_>
    <_>
      <rects>
        <_>
          7 13 26 4 -1.</_>
        <_>
          7 15 26 2 2.</_></rects>
      <tilted>0</tilted></_>
    <_>
      <rects>
        <_>
          9 0 11 6 -1.</_>
        <_>
          9 2 11 2 3.</_></rects>
      <tilted>0</tilted></_>
    <_>
      <rects>
        <_>
          12 3 10 9 -1.</_>
        <_>
          12 6 10 3 3.</_></rects>
      <tilted>0</tilted></_>
    <_>
      <rects>
        <_>
          13 11 22 3 -1.</_>
        <_>
          13 12 22 1 3.</_></rects>
      <tilted>0</tilted></_>
    <_>
      <rects>
        <_>
          13 13 21 4 -1.</_>
        <_>
          13 15 21 2 2.</_></rects>
      <tilted>0</tilted></_>
    <_>
      <rects>
        <_>
          16 0 27 2 -1.</_>
        <_>
          16 1 27 1 2.</_></rects>
      <tilted>0</tilted></_>
    <_>
      <rects>
        <_>
          17 9 25 3 -1.</_>
        <_>
          17 10 25 1 3.</_></rects>
      <tilted>0</tilted></_>
    <_>
      <rects>
        <_>
          18 6 20 16 -1.</_>
        <_>
          18 6 10 8 2.</_>
        <_>
          28 14 10 8 2.</_></rects>
      <tilted>0</tilted></_>
    <_>
      <rects>
        <_>
          19 13 8 9 -1.</_>
        <_>
          19 16 8 3 3.</_></rects>
      <tilted>0</tilted></_>
    <_>
      <rects>
        <_>
          22 5 2 6 -1.</_>
        <_>
          22 5 1 3 2.</_>
        <_>
          23 8 1 3 2.</_></rects>
      <tilted>0</tilted></_>
    <_>
      <rects>
        <_>
          23 2 5 9 -1.</_>
        <_>
          23 5 5 3 3.</_></rects>
      <tilted>0</tilted></_>
    <_>
      <rects>
        <_>
          23 7 20 4 -1.</_>
        <_>
          23 7 10 2 2.</_>
        <_>
          33 9 10 2 2.</_></rects>
      <tilted>0</tilted></_>
    <_>
      <rects>
        <_>
          24 6 8 4 -1.</_>
        <_>
          24 6 4 2 2.</_>
        <_>
          28 8 4 2 2.</_></rects>
      <tilted>0</tilted></_>
    <_>
      <rects>
        <_>
          24 8 8 6 -1.</_>
        <_>
          24 8 4 3 2.</_>
        <_>
          28 11 4 3 2.</_></rects>
      <tilted>0</tilted></_>
    <_>
      <rects>
        <_>
          25 9 18 3 -1.</_>
        <_>
          25 10 18 1 3.</_></rects>
      <tilted>0</tilted></_>
    <_>
      <rects>
        <_>
          26 6 4 9 -1.</_>
        <_>
          26 9 4 3 3.</_></rects>
      <tilted>0</tilted></_>
    <_>
      <rects>
        <_>
          26 12 8 4 -1.</_>
        <_>
          26 12 4 2 2.</_>
        <_>
          30 14 4 2 2.</_></rects>
      <tilted>0</tilted></_>
    <_>
      <rects>
        <_>
          28 0 14 24 -1.</_>
        <_>
          28 8 14 8 3.</_></rects>
      <tilted>0</tilted></_>
    <_>
      <rects>
        <_>
          33 4 3 15 -1.</_>
        <_>
          33 9 3 5 3.</_></rects>
      <tilted>0</tilted></_>
    <_>
      <rects>
        <_>
          33 8 8 7 -1.</_>
        <_>
          37 8 4 7 2.</_></rects>
      <tilted>0</tilted></_>
    <_>
      <rects>
        <_>
          34 9 9 3 -1.</_>
        <_>
          34 10 9 1 3.</_></rects>
      <tilted>0</tilted></_>
    <_>
      <rects>
        <_>
          37 10 2 3 -1.</_>
        <_>
          37 11 2 1 3.</_></rects>
      <tilted>0</tilted></_></features></cascade>
</opencv_storage>
