<?xml version="1.0"?>
<opencv_storage>
<cascade>
  <stageType>BOOST</stageType>
  <featureType>HAAR</featureType>
  <height>24</height>
  <width>43</width>
  <stageParams>
    <boostType>GAB</boostType>
    <minHitRate>9.9500000476837158e-01</minHitRate>
    <maxFalseAlarm>5.0000000000000000e-01</maxFalseAlarm>
    <weightTrimRate>9.4999999999999996e-01</weightTrimRate>
    <maxDepth>1</maxDepth>
    <maxWeakCount>100</maxWeakCount></stageParams>
  <featureParams>
    <maxCatCount>0</maxCatCount>
    <featSize>1</featSize>
    <mode>BASIC</mode></featureParams>
  <stageNum>11</stageNum>
  <stages>
    <!-- stage 0 -->
    <_>
      <maxWeakCount>2</maxWeakCount>
      <stageThreshold>-2.2248837351799011e-01</stageThreshold>
      <weakClassifiers>
        <_>
          <internalNodes>
            0 -1 24 -5.0964713096618652e-02</internalNodes>
          <leafValues>
            1. -8.8652479648590088e-01</leafValues></_>
        <_>
          <internalNodes>
            0 -1 4 4.3214075267314911e-02</internalNodes>
          <leafValues>
            -1. 6.6403645277023315e-01</leafValues></_></weakClassifiers></_>
    <!-- stage 1 -->
    <_>
      <maxWeakCount>2</maxWeakCount>
      <stageThreshold>-1.1530191451311111e-01</stageThreshold>
      <weakClassifiers>
        <_>
          <internalNodes>
            0 -1 26 5.3321418818086386e-04</internalNodes>
          <leafValues>
            -9.4160586595535278e-01 1.</leafValues></_>
        <_>
          <internalNodes>
            0 -1 1 -9.9904341623187065e-03</internalNodes>
          <leafValues>
            8.2630389928817749e-01 -9.8525476455688477e-01</leafValues></_></weakClassifiers></_>
    <!-- stage 2 -->
    <_>
      <maxWeakCount>2</maxWeakCount>
      <stageThreshold>-1.2779955565929413e-01</stageThreshold>
      <weakClassifiers>
        <_>
          <internalNodes>
            0 -1 16 -5.0198204815387726e-02</internalNodes>
          <leafValues>
            8.6666667461395264e-01 -9.6969699859619141e-01</leafValues></_>
        <_>
          <internalNodes>
            0 -1 18 3.0050356872379780e-04</internalNodes>
          <leafValues>
            -9.6963739395141602e-01 8.4189742803573608e-01</leafValues></_></weakClassifiers></_>
    <!-- stage 3 -->
    <_>
      <maxWeakCount>3</maxWeakCount>
      <stageThreshold>-8.8671386241912842e-01</stageThreshold>
      <weakClassifiers>
        <_>
          <internalNodes>
            0 -1 15 1.0903453826904297e-01</internalNodes>
          <leafValues>
            -8.8652479648590088e-01 1.</leafValues></_>
        <_>
          <internalNodes>
            0 -1 3 6.0976982116699219e-02</internalNodes>
          <leafValues>
            -7.9678440093994141e-01 9.3978840112686157e-01</leafValues></_>
        <_>
          <internalNodes>
            0 -1 17 -5.7322233915328979e-02</internalNodes>
          <leafValues>
            7.9659533500671387e-01 -9.2351096868515015e-01</leafValues></_></weakClassifiers></_>
    <!-- stage 4 -->
    <_>
      <maxWeakCount>3</maxWeakCount>
      <stageThreshold>-1.1769385337829590e+00</stageThreshold>
      <weakClassifiers>
        <_>
          <internalNodes>
            0 -1 0 -1.5536632388830185e-02</internalNodes>
          <leafValues>
            7.6744186878204346e-01 -9.1044777631759644e-01</leafValues></_>
        <_>
          <internalNodes>
            0 -1 8 1.8961569294333458e-02</internalNodes>
          <leafValues>
            -8.8397252559661865e-01 6.1977803707122803e-01</leafValues></_>
        <_>
          <internalNodes>
            0 -1 7 1.3023873325437307e-03</internalNodes>
          <leafValues>
            -9.6731692552566528e-01 6.1748170852661133e-01</leafValues></_></weakClassifiers></_>
    <!-- stage 5 -->
    <_>
      <maxWeakCount>3</maxWeakCount>
      <stageThreshold>-8.9893174171447754e-01</stageThreshold>
      <weakClassifiers>
        <_>
          <internalNodes>
            0 -1 22 -2.5324612855911255e-02</internalNodes>
          <leafValues>
            8.0487805604934692e-01 -8.9705884456634521e-01</leafValues></_>
        <_>
          <internalNodes>
            0 -1 11 2.8984094038605690e-02</internalNodes>
          <leafValues>
            -7.6382797956466675e-01 7.7632677555084229e-01</leafValues></_>
        <_>
          <internalNodes>
            0 -1 5 7.2525158524513245e-02</internalNodes>
          <leafValues>
            -7.7819967269897461e-01 8.0580663681030273e-01</leafValues></_></weakClassifiers></_>
    <!-- stage 6 -->
    <_>
      <maxWeakCount>3</maxWeakCount>
      <stageThreshold>-1.1838505268096924e+00</stageThreshold>
      <weakClassifiers>
        <_>
          <internalNodes>
            0 -1 14 2.1645985543727875e-02</internalNodes>
          <leafValues>
            -9.5419847965240479e-01 7.8260868787765503e-01</leafValues></_>
        <_>
          <internalNodes>
            0 -1 10 4.2903669178485870e-02</internalNodes>
          <leafValues>
            -8.8350260257720947e-01 7.3831498622894287e-01</leafValues></_>
        <_>
          <internalNodes>
            0 -1 13 3.4113686531782150e-02</internalNodes>
          <leafValues>
            -9.6782231330871582e-01 6.5385055541992188e-01</leafValues></_></weakClassifiers></_>
    <!-- stage 7 -->
    <_>
      <maxWeakCount>3</maxWeakCount>
      <stageThreshold>-1.0835618972778320e+00</stageThreshold>
      <weakClassifiers>
        <_>
          <internalNodes>
            0 -1 23 -4.6581856906414032e-02</internalNodes>
          <leafValues>
            1. -8.6013984680175781e-01</leafValues></_>
        <_>
          <internalNodes>
            0 -1 27 -1.1129058897495270e-02</internalNodes>
          <leafValues>
            7.2174251079559326e-01 -8.3094501495361328e-01</leafValues></_>
        <_>
          <internalNodes>
            0 -1 12 1.2392749078571796e-02</internalNodes>
          <leafValues>
            -9.2258888483047485e-01 6.0752296447753906e-01</leafValues></_></weakClassifiers></_>
    <!-- stage 8 -->
    <_>
      <maxWeakCount>2</maxWeakCount>
      <stageThreshold>-3.9621919393539429e-01</stageThreshold>
      <weakClassifiers>
        <_>
          <internalNodes>
            0 -1 25 -6.9365771487355232e-03</internalNodes>
          <leafValues>
            8.0952382087707520e-01 -9.1111111640930176e-01</leafValues></_>
        <_>
          <internalNodes>
            0 -1 19 -1.1234490375500172e-04</internalNodes>
          <leafValues>
            5.1489192247390747e-01 -9.8263090848922729e-01</leafValues></_></weakClassifiers></_>
    <!-- stage 9 -->
    <_>
      <maxWeakCount>3</maxWeakCount>
      <stageThreshold>-1.1862807273864746e+00</stageThreshold>
      <weakClassifiers>
        <_>
          <internalNodes>
            0 -1 21 -9.5488522201776505e-03</internalNodes>
          <leafValues>
            9.4736844301223755e-01 -8.9928054809570313e-01</leafValues></_>
        <_>
          <internalNodes>
            0 -1 2 -7.5561525300145149e-03</internalNodes>
          <leafValues>
            6.2033534049987793e-01 -7.4953770637512207e-01</leafValues></_>
        <_>
          <internalNodes>
            0 -1 20 -1.8149856477975845e-03</internalNodes>
          <leafValues>
            -9.0733546018600464e-01 5.7555860280990601e-01</leafValues></_></weakClassifiers></_>
    <!-- stage 10 -->
    <_>
      <maxWeakCount>2</maxWeakCount>
      <stageThreshold>-3.1720617413520813e-01</stageThreshold>
      <weakClassifiers>
        <_>
          <internalNodes>
            0 -1 6 -6.9796159863471985e-02</internalNodes>
          <leafValues>
            7.7272725105285645e-01 -9.2481201887130737e-01</leafValues></_>
        <_>
          <internalNodes>
            0 -1 9 3.5165376175427809e-05</internalNodes>
          <leafValues>
            6.0760581493377686e-01 -8.4573739767074585e-01</leafValues></_></weakClassifiers></_></stages>
  <features>
    <_>
      <rects>
        <_>
          0 4 3 9 -1.</_>
        <_>
          0 7 3 3 3.</_></rects>
      <tilted>0</tilted></_>
    <_>
      <rects>
        <_>
          0 11 10 10 -1.</_>
        <_>
          0 16 10 5 2.</_></rects>
      <tilted>0</tilted></_>
    <_>
      <rects>
        <_>
          1 17 10 4 -1.</_>
        <_>
          1 17 5 2 2.</_>
        <_>
          6 19 5 2 2.</_></rects>
      <tilted>0</tilted></_>
    <_>
      <rects>
        <_>
          2 0 12 18 -1.</_>
        <_>
          6 0 4 18 3.</_></rects>
      <tilted>0</tilted></_>
    <_>
      <rects>
        <_>
          2 3 16 12 -1.</_>
        <_>
          10 3 8 12 2.</_></rects>
      <tilted>0</tilted></_>
    <_>
      <rects>
        <_>
          2 6 8 16 -1.</_>
        <_>
          6 6 4 16 2.</_></rects>
      <tilted>0</tilted></_>
    <_>
      <rects>
        <_>
          3 3 40 12 -1.</_>
        <_>
          3 3 20 6 2.</_>
        <_>
          23 9 20 6 2.</_></rects>
      <tilted>0</tilted></_>
    <_>
      <rects>
        <_>
          4 0 1 9 -1.</_>
        <_>
          4 3 1 3 3.</_></rects>
      <tilted>0</tilted></_>
    <_>
      <rects>
        <_>
          6 11 12 12 -1.</_>
        <_>
          6 15 12 4 3.</_></rects>
      <tilted>0</tilted></_>
    <_>
      <rects>
        <_>
          7 0 12 20 -1.</_>
        <_>
          13 0 6 20 2.</_></rects>
      <tilted>0</tilted></_>
    <_>
      <rects>
        <_>
          7 2 15 10 -1.</_>
        <_>
          7 7 15 5 2.</_></rects>
      <tilted>0</tilted></_>
    <_>
      <rects>
        <_>
          9 11 10 12 -1.</_>
        <_>
          9 15 10 4 3.</_></rects>
      <tilted>0</tilted></_>
    <_>
      <rects>
        <_>
          18 3 15 6 -1.</_>
        <_>
          18 6 15 3 2.</_></rects>
      <tilted>0</tilted></_>
    <_>
      <rects>
        <_>
          19 1 18 16 -1.</_>
        <_>
          25 1 6 16 3.</_></rects>
      <tilted>0</tilted></_>
    <_>
      <rects>
        <_>
          19 18 24 5 -1.</_>
        <_>
          31 18 12 5 2.</_></rects>
      <tilted>0</tilted></_>
    <_>
      <rects>
        <_>
          21 11 22 12 -1.</_>
        <_>
          21 11 11 6 2.</_>
        <_>
          32 17 11 6 2.</_></rects>
      <tilted>0</tilted></_>
    <_>
      <rects>
        <_>
          23 0 16 14 -1.</_>
        <_>
          23 0 8 7 2.</_>
        <_>
          31 7 8 7 2.</_></rects>
      <tilted>0</tilted></_>
    <_>
      <rects>
        <_>
          23 9 16 10 -1.</_>
        <_>
          31 9 8 10 2.</_></rects>
      <tilted>0</tilted></_>
    <_>
      <rects>
        <_>
          25 7 10 2 -1.</_>
        <_>
          25 8 10 1 2.</_></rects>
      <tilted>0</tilted></_>
    <_>
      <rects>
        <_>
          25 8 4 16 -1.</_>
        <_>
          25 8 2 8 2.</_>
        <_>
          27 16 2 8 2.</_></rects>
      <tilted>0</tilted></_>
    <_>
      <rects>
        <_>
          27 2 4 22 -1.</_>
        <_>
          27 13 4 11 2.</_></rects>
      <tilted>0</tilted></_>
    <_>
      <rects>
        <_>
          28 2 3 6 -1.</_>
        <_>
          28 5 3 3 2.</_></rects>
      <tilted>0</tilted></_>
    <_>
      <rects>
        <_>
          30 2 3 12 -1.</_>
        <_>
          30 6 3 4 3.</_></rects>
      <tilted>0</tilted></_>
    <_>
      <rects>
        <_>
          31 3 6 14 -1.</_>
        <_>
          31 3 3 7 2.</_>
        <_>
          34 10 3 7 2.</_></rects>
      <tilted>0</tilted></_>
    <_>
      <rects>
        <_>
          31 10 9 7 -1.</_>
        <_>
          34 10 3 7 3.</_></rects>
      <tilted>0</tilted></_>
    <_>
      <rects>
        <_>
          32 12 2 8 -1.</_>
        <_>
          32 16 2 4 2.</_></rects>
      <tilted>0</tilted></_>
    <_>
      <rects>
        <_>
          39 12 4 2 -1.</_>
        <_>
          39 12 2 1 2.</_>
        <_>
          41 13 2 1 2.</_></rects>
      <tilted>0</tilted></_>
    <_>
      <rects>
        <_>
          41 7 2 12 -1.</_>
        <_>
          41 11 2 4 3.</_></rects>
      <tilted>0</tilted></_></features></cascade>
</opencv_storage>
