<?xml version="1.0"?>
<opencv_storage>
<cascade>
  <stageType>BOOST</stageType>
  <featureType>HAAR</featureType>
  <height>24</height>
  <width>43</width>
  <stageParams>
    <boostType>GAB</boostType>
    <minHitRate>9.9500000476837158e-01</minHitRate>
    <maxFalseAlarm>5.0000000000000000e-01</maxFalseAlarm>
    <weightTrimRate>9.4999999999999996e-01</weightTrimRate>
    <maxDepth>1</maxDepth>
    <maxWeakCount>100</maxWeakCount></stageParams>
  <featureParams>
    <maxCatCount>0</maxCatCount>
    <featSize>1</featSize>
    <mode>BASIC</mode></featureParams>
  <stageNum>8</stageNum>
  <stages>
    <!-- stage 0 -->
    <_>
      <maxWeakCount>2</maxWeakCount>
      <stageThreshold>-4.1456717997789383e-02</stageThreshold>
      <weakClassifiers>
        <_>
          <internalNodes>
            0 -1 14 1.2407205998897552e-02</internalNodes>
          <leafValues>
            -8.4269660711288452e-01 7.2727274894714355e-01</leafValues></_>
        <_>
          <internalNodes>
            0 -1 1 6.7082419991493225e-03</internalNodes>
          <leafValues>
            -7.6872944831848145e-01 9.1793322563171387e-01</leafValues></_></weakClassifiers></_>
    <!-- stage 1 -->
    <_>
      <maxWeakCount>2</maxWeakCount>
      <stageThreshold>-1.8406151235103607e-01</stageThreshold>
      <weakClassifiers>
        <_>
          <internalNodes>
            0 -1 5 3.1459242105484009e-02</internalNodes>
          <leafValues>
            -9.2771083116531372e-01 6.4285713434219360e-01</leafValues></_>
        <_>
          <internalNodes>
            0 -1 2 -4.0317843668162823e-03</internalNodes>
          <leafValues>
            7.4886852502822876e-01 -8.2691866159439087e-01</leafValues></_></weakClassifiers></_>
    <!-- stage 2 -->
    <_>
      <maxWeakCount>2</maxWeakCount>
      <stageThreshold>-2.8927412629127502e-01</stageThreshold>
      <weakClassifiers>
        <_>
          <internalNodes>
            0 -1 15 6.7357397638261318e-03</internalNodes>
          <leafValues>
            -9.0697675943374634e-01 7.5999999046325684e-01</leafValues></_>
        <_>
          <internalNodes>
            0 -1 10 -3.9127394556999207e-03</internalNodes>
          <leafValues>
            6.1770260334014893e-01 -9.2308872938156128e-01</leafValues></_></weakClassifiers></_>
    <!-- stage 3 -->
    <_>
      <maxWeakCount>2</maxWeakCount>
      <stageThreshold>-1.1567914485931396e-01</stageThreshold>
      <weakClassifiers>
        <_>
          <internalNodes>
            0 -1 0 1.6585681587457657e-02</internalNodes>
          <leafValues>
            -8.8505744934082031e-01 7.5000000000000000e-01</leafValues></_>
        <_>
          <internalNodes>
            0 -1 11 2.7158828452229500e-03</internalNodes>
          <leafValues>
            -8.6567914485931396e-01 9.1757112741470337e-01</leafValues></_></weakClassifiers></_>
    <!-- stage 4 -->
    <_>
      <maxWeakCount>2</maxWeakCount>
      <stageThreshold>-5.5147236585617065e-01</stageThreshold>
      <weakClassifiers>
        <_>
          <internalNodes>
            0 -1 12 5.3345235064625740e-03</internalNodes>
          <leafValues>
            -8.5185188055038452e-01 3.3333334326744080e-01</leafValues></_>
        <_>
          <internalNodes>
            0 -1 8 2.0810155547223985e-05</internalNodes>
          <leafValues>
            4.1763824224472046e-01 -8.8480567932128906e-01</leafValues></_></weakClassifiers></_>
    <!-- stage 5 -->
    <_>
      <maxWeakCount>3</maxWeakCount>
      <stageThreshold>-7.7286785840988159e-01</stageThreshold>
      <weakClassifiers>
        <_>
          <internalNodes>
            0 -1 13 -3.6403533071279526e-02</internalNodes>
          <leafValues>
            8.7500000000000000e-01 -7.6842105388641357e-01</leafValues></_>
        <_>
          <internalNodes>
            0 -1 16 7.5204493477940559e-03</internalNodes>
          <leafValues>
            -6.2263274192810059e-01 7.6603263616561890e-01</leafValues></_>
        <_>
          <internalNodes>
            0 -1 4 -5.2961134351789951e-03</internalNodes>
          <leafValues>
            7.2369843721389771e-01 -7.7047944068908691e-01</leafValues></_></weakClassifiers></_>
    <!-- stage 6 -->
    <_>
      <maxWeakCount>2</maxWeakCount>
      <stageThreshold>-3.9918857812881470e-01</stageThreshold>
      <weakClassifiers>
        <_>
          <internalNodes>
            0 -1 7 8.4078777581453323e-03</internalNodes>
          <leafValues>
            -7.8494626283645630e-01 7.7777779102325439e-01</leafValues></_>
        <_>
          <internalNodes>
            0 -1 3 5.3104804828763008e-03</internalNodes>
          <leafValues>
            3.8575765490531921e-01 -9.6926981210708618e-01</leafValues></_></weakClassifiers></_>
    <!-- stage 7 -->
    <_>
      <maxWeakCount>2</maxWeakCount>
      <stageThreshold>-2.8955563902854919e-01</stageThreshold>
      <weakClassifiers>
        <_>
          <internalNodes>
            0 -1 9 1.2717081699520350e-03</internalNodes>
          <leafValues>
            -8.4269660711288452e-01 7.2727274894714355e-01</leafValues></_>
        <_>
          <internalNodes>
            0 -1 6 1.4960058033466339e-02</internalNodes>
          <leafValues>
            -1. 5.5314099788665771e-01</leafValues></_></weakClassifiers></_></stages>
  <features>
    <_>
      <rects>
        <_>
          0 1 22 8 -1.</_>
        <_>
          0 1 11 4 2.</_>
        <_>
          11 5 11 4 2.</_></rects>
      <tilted>0</tilted></_>
    <_>
      <rects>
        <_>
          0 7 13 3 -1.</_>
        <_>
          0 8 13 1 3.</_></rects>
      <tilted>0</tilted></_>
    <_>
      <rects>
        <_>
          0 14 14 1 -1.</_>
        <_>
          7 14 7 1 2.</_></rects>
      <tilted>0</tilted></_>
    <_>
      <rects>
        <_>
          0 18 32 6 -1.</_>
        <_>
          16 18 16 6 2.</_></rects>
      <tilted>0</tilted></_>
    <_>
      <rects>
        <_>
          2 11 2 12 -1.</_>
        <_>
          2 15 2 4 3.</_></rects>
      <tilted>0</tilted></_>
    <_>
      <rects>
        <_>
          5 3 22 15 -1.</_>
        <_>
          16 3 11 15 2.</_></rects>
      <tilted>0</tilted></_>
    <_>
      <rects>
        <_>
          5 14 38 9 -1.</_>
        <_>
          24 14 19 9 2.</_></rects>
      <tilted>0</tilted></_>
    <_>
      <rects>
        <_>
          6 5 34 4 -1.</_>
        <_>
          6 7 34 2 2.</_></rects>
      <tilted>0</tilted></_>
    <_>
      <rects>
        <_>
          13 3 4 19 -1.</_>
        <_>
          15 3 2 19 2.</_></rects>
      <tilted>0</tilted></_>
    <_>
      <rects>
        <_>
          15 5 20 4 -1.</_>
        <_>
          15 5 10 2 2.</_>
        <_>
          25 7 10 2 2.</_></rects>
      <tilted>0</tilted></_>
    <_>
      <rects>
        <_>
          18 12 24 1 -1.</_>
        <_>
          30 12 12 1 2.</_></rects>
      <tilted>0</tilted></_>
    <_>
      <rects>
        <_>
          19 2 9 6 -1.</_>
        <_>
          19 4 9 2 3.</_></rects>
      <tilted>0</tilted></_>
    <_>
      <rects>
        <_>
          21 13 9 9 -1.</_>
        <_>
          21 16 9 3 3.</_></rects>
      <tilted>0</tilted></_>
    <_>
      <rects>
        <_>
          22 0 8 9 -1.</_>
        <_>
          22 3 8 3 3.</_></rects>
      <tilted>0</tilted></_>
    <_>
      <rects>
        <_>
          23 11 20 4 -1.</_>
        <_>
          23 11 10 2 2.</_>
        <_>
          33 13 10 2 2.</_></rects>
      <tilted>0</tilted></_>
    <_>
      <rects>
        <_>
          29 8 14 2 -1.</_>
        <_>
          36 8 7 2 2.</_></rects>
      <tilted>0</tilted></_>
    <_>
      <rects>
        <_>
          33 6 9 6 -1.</_>
        <_>
          36 6 3 6 3.</_></rects>
      <tilted>0</tilted></_></features></cascade>
</opencv_storage>
